digraph Tree {
0 [label="X[0] <= 4.5000\nmse = 1.63940438954\nsamples = 263", shape="box"] ;
1 [label="X[1] <= 15.5000\nmse = 0.979472936771\nsamples = 90", shape="box"] ;
0 -> 1 ;
2 [label="X[0] <= 1.5000\nmse = 0.365625878774\nsamples = 2", shape="box"] ;
1 -> 2 ;
3 [label="mse = 0.0000\nsamples = 1\nvalue = [ 9.84549005]", shape="box"] ;
2 -> 3 ;
4 [label="mse = 0.0000\nsamples = 1\nvalue = [ 11.05483017]", shape="box"] ;
2 -> 4 ;
5 [label="X[0] <= 3.5000\nmse = 0.772548700423\nsamples = 88", shape="box"] ;
1 -> 5 ;
6 [label="X[1] <= 114.0000\nmse = 0.389485738729\nsamples = 60", shape="box"] ;
5 -> 6 ;
7 [label="X[1] <= 69.5000\nmse = 0.178442273365\nsamples = 41", shape="box"] ;
6 -> 7 ;
8 [label="X[0] <= 2.5000\nmse = 0.102724898086\nsamples = 19", shape="box"] ;
7 -> 8 ;
9 [label="X[1] <= 55.0000\nmse = 0.030635894186\nsamples = 12", shape="box"] ;
8 -> 9 ;
10 [label="X[1] <= 46.0000\nmse = 0.0257313702373\nsamples = 7", shape="box"] ;
9 -> 10 ;
11 [label="X[1] <= 39.0000\nmse = 0.0488828323504\nsamples = 3", shape="box"] ;
10 -> 11 ;
12 [label="mse = 0.0000\nsamples = 1\nvalue = [ 6.12928302]", shape="box"] ;
11 -> 12 ;
13 [label="mse = 0.0608\nsamples = 2\nvalue = [ 6.3233356]", shape="box"] ;
11 -> 13 ;
14 [label="X[1] <= 53.5000\nmse = 0.00270587693279\nsamples = 4", shape="box"] ;
10 -> 14 ;
15 [label="mse = 0.0000\nsamples = 2\nvalue = [ 6.12928302]", shape="box"] ;
14 -> 15 ;
16 [label="mse = 0.0050\nsamples = 2\nvalue = [ 6.15814077]", shape="box"] ;
14 -> 16 ;
17 [label="X[1] <= 62.0000\nmse = 0.0221335322804\nsamples = 5", shape="box"] ;
9 -> 17 ;
18 [label="X[0] <= 1.5000\nmse = 0.000727707910436\nsamples = 3", shape="box"] ;
17 -> 18 ;
19 [label="mse = 0.0000\nsamples = 1\nvalue = [ 6.43462823]", shape="box"] ;
18 -> 19 ;
20 [label="mse = 0.0000\nsamples = 2\nvalue = [ 6.4918531]", shape="box"] ;
18 -> 20 ;
21 [label="X[1] <= 66.0000\nmse = 0.00247683757728\nsamples = 2", shape="box"] ;
17 -> 21 ;
22 [label="mse = 0.0000\nsamples = 1\nvalue = [ 6.22881869]", shape="box"] ;
21 -> 22 ;
23 [label="mse = 0.0000\nsamples = 1\nvalue = [ 6.12928302]", shape="box"] ;
21 -> 23 ;
24 [label="X[1] <= 55.0000\nmse = 0.128736108696\nsamples = 7", shape="box"] ;
8 -> 24 ;
25 [label="X[1] <= 39.5000\nmse = 0.0768870837574\nsamples = 4", shape="box"] ;
24 -> 25 ;
26 [label="mse = 0.0000\nsamples = 1\nvalue = [ 6.22881869]", shape="box"] ;
25 -> 26 ;
27 [label="X[1] <= 48.0000\nmse = 0.0779138592181\nsamples = 3", shape="box"] ;
25 -> 27 ;
28 [label="X[1] <= 41.5000\nmse = 0.0430640314519\nsamples = 2", shape="box"] ;
27 -> 28 ;
29 [label="mse = 0.0000\nsamples = 1\nvalue = [ 6.4918531]", shape="box"] ;
28 -> 29 ;
30 [label="mse = 0.0000\nsamples = 1\nvalue = [ 6.9068906]", shape="box"] ;
28 -> 30 ;
31 [label="mse = -0.0000\nsamples = 1\nvalue = [ 6.22881869]", shape="box"] ;
27 -> 31 ;
32 [label="X[1] <= 63.0000\nmse = 0.0860829431559\nsamples = 3", shape="box"] ;
24 -> 32 ;
33 [label="X[1] <= 58.5000\nmse = 0.000244155218731\nsamples = 2", shape="box"] ;
32 -> 33 ;
34 [label="mse = 0.0000\nsamples = 1\nvalue = [ 7.12928302]", shape="box"] ;
33 -> 34 ;
35 [label="mse = 0.0000\nsamples = 1\nvalue = [ 7.09803208]", shape="box"] ;
33 -> 35 ;
36 [label="mse = 0.0000\nsamples = 1\nvalue = [ 6.4918531]", shape="box"] ;
32 -> 36 ;
37 [label="X[0] <= 2.5000\nmse = 0.15289986051\nsamples = 22", shape="box"] ;
7 -> 37 ;
38 [label="X[1] <= 81.5000\nmse = 0.0832351575594\nsamples = 14", shape="box"] ;
37 -> 38 ;
39 [label="X[1] <= 79.5000\nmse = 0.00247683757731\nsamples = 2", shape="box"] ;
38 -> 39 ;
40 [label="mse = 0.0000\nsamples = 1\nvalue = [ 6.12928302]", shape="box"] ;
39 -> 40 ;
41 [label="mse = 0.0000\nsamples = 1\nvalue = [ 6.22881869]", shape="box"] ;
39 -> 41 ;
42 [label="X[1] <= 112.5000\nmse = 0.0460084811424\nsamples = 12", shape="box"] ;
38 -> 42 ;
43 [label="X[1] <= 110.5000\nmse = 0.0422566274032\nsamples = 11", shape="box"] ;
42 -> 43 ;
44 [label="X[1] <= 97.0000\nmse = 0.038078870714\nsamples = 10", shape="box"] ;
43 -> 44 ;
45 [label="X[1] <= 92.5000\nmse = 0.0524992548499\nsamples = 6", shape="box"] ;
44 -> 45 ;
46 [label="X[1] <= 89.0000\nmse = 0.0227850951667\nsamples = 5", shape="box"] ;
45 -> 46 ;
47 [label="X[1] <= 86.5000\nmse = 0.0156833709584\nsamples = 3", shape="box"] ;
46 -> 47 ;
48 [label="mse = 0.0000\nsamples = 2\nvalue = [ 6.78135971]", shape="box"] ;
47 -> 48 ;
49 [label="mse = -0.0000\nsamples = 1\nvalue = [ 6.51569984]", shape="box"] ;
47 -> 49 ;
50 [label="X[0] <= 1.5000\nmse = 0.0259094245694\nsamples = 2", shape="box"] ;
46 -> 50 ;
51 [label="mse = 0.0000\nsamples = 1\nvalue = [ 6.64385619]", shape="box"] ;
50 -> 51 ;
52 [label="mse = -0.0000\nsamples = 1\nvalue = [ 6.96578428]", shape="box"] ;
50 -> 52 ;
53 [label="mse = 0.0000\nsamples = 1\nvalue = [ 7.22881869]", shape="box"] ;
45 -> 53 ;
54 [label="X[1] <= 106.0000\nmse = 0.0082700662397\nsamples = 4", shape="box"] ;
44 -> 54 ;
55 [label="X[0] <= 1.5000\nmse = 0.00196885088099\nsamples = 3", shape="box"] ;
54 -> 55 ;
56 [label="mse = 0.0000\nsamples = 1\nvalue = [ 6.60733031]", shape="box"] ;
55 -> 56 ;
57 [label="mse = 0.0012\nsamples = 2\nvalue = [ 6.67905085]", shape="box"] ;
55 -> 57 ;
58 [label="mse = 0.0000\nsamples = 1\nvalue = [ 6.84549005]", shape="box"] ;
54 -> 58 ;
59 [label="mse = 0.0000\nsamples = 1\nvalue = [ 7.0768156]", shape="box"] ;
43 -> 59 ;
60 [label="mse = -0.0000\nsamples = 1\nvalue = [ 6.4918531]", shape="box"] ;
42 -> 60 ;
61 [label="X[1] <= 74.0000\nmse = 0.153494861993\nsamples = 8", shape="box"] ;
37 -> 61 ;
62 [label="mse = 0.0000\nsamples = 2\nvalue = [ 6.64385619]", shape="box"] ;
61 -> 62 ;
63 [label="X[1] <= 96.5000\nmse = 0.101240639234\nsamples = 6", shape="box"] ;
61 -> 63 ;
64 [label="X[1] <= 75.5000\nmse = 0.00370919772127\nsamples = 3", shape="box"] ;
63 -> 64 ;
65 [label="mse = 0.0000\nsamples = 1\nvalue = [ 7.12928302]", shape="box"] ;
64 -> 65 ;
66 [label="X[1] <= 84.0000\nmse = 0.00231434672263\nsamples = 2", shape="box"] ;
64 -> 66 ;
67 [label="mse = 0.0000\nsamples = 1\nvalue = [ 7.27612441]", shape="box"] ;
66 -> 67 ;
68 [label="mse = -0.0000\nsamples = 1\nvalue = [ 7.17990909]", shape="box"] ;
66 -> 68 ;
69 [label="X[1] <= 104.5000\nmse = 0.181870666604\nsamples = 3", shape="box"] ;
63 -> 69 ;
70 [label="mse = 0.0000\nsamples = 1\nvalue = [ 7.60733031]", shape="box"] ;
69 -> 70 ;
71 [label="mse = 0.2337\nsamples = 2\nvalue = [ 7.26477628]", shape="box"] ;
69 -> 71 ;
72 [label="X[0] <= 2.5000\nmse = 0.226699562128\nsamples = 19", shape="box"] ;
6 -> 72 ;
73 [label="X[1] <= 122.0000\nmse = 0.0451207633075\nsamples = 10", shape="box"] ;
72 -> 73 ;
74 [label="mse = 0.0000\nsamples = 1\nvalue = [ 6.9068906]", shape="box"] ;
73 -> 74 ;
75 [label="X[1] <= 131.0000\nmse = 0.0253440199486\nsamples = 9", shape="box"] ;
73 -> 75 ;
76 [label="mse = 0.0000\nsamples = 1\nvalue = [ 7.6617781]", shape="box"] ;
75 -> 76 ;
77 [label="X[1] <= 150.5000\nmse = 0.0192245822875\nsamples = 8", shape="box"] ;
75 -> 77 ;
78 [label="X[1] <= 147.0000\nmse = 0.0114200467237\nsamples = 6", shape="box"] ;
77 -> 78 ;
79 [label="X[1] <= 138.0000\nmse = 0.00417694923097\nsamples = 5", shape="box"] ;
78 -> 79 ;
80 [label="X[0] <= 1.5000\nmse = 0.000155580183517\nsamples = 2", shape="box"] ;
79 -> 80 ;
81 [label="mse = 0.0000\nsamples = 1\nvalue = [ 7.42626475]", shape="box"] ;
80 -> 81 ;
82 [label="mse = 0.0000\nsamples = 1\nvalue = [ 7.45121111]", shape="box"] ;
80 -> 82 ;
83 [label="X[1] <= 144.5000\nmse = 0.0013560511732\nsamples = 3", shape="box"] ;
79 -> 83 ;
84 [label="X[1] <= 141.5000\nmse = 0.000492709458413\nsamples = 2", shape="box"] ;
83 -> 84 ;
85 [label="mse = 0.0000\nsamples = 1\nvalue = [ 7.32192809]", shape="box"] ;
84 -> 85 ;
86 [label="mse = 0.0000\nsamples = 1\nvalue = [ 7.36632221]", shape="box"] ;
84 -> 86 ;
87 [label="mse = -0.0000\nsamples = 1\nvalue = [ 7.27612441]", shape="box"] ;
83 -> 87 ;
88 [label="mse = -0.0000\nsamples = 1\nvalue = [ 7.12928302]", shape="box"] ;
78 -> 88 ;
89 [label="X[1] <= 162.0000\nmse = 0.0192562768932\nsamples = 2", shape="box"] ;
77 -> 89 ;
90 [label="mse = 0.0000\nsamples = 1\nvalue = [ 7.64385619]", shape="box"] ;
89 -> 90 ;
91 [label="mse = 0.0000\nsamples = 1\nvalue = [ 7.36632221]", shape="box"] ;
89 -> 91 ;
92 [label="X[1] <= 131.0000\nmse = 0.294184644993\nsamples = 9", shape="box"] ;
72 -> 92 ;
93 [label="X[1] <= 125.0000\nmse = 0.353717534932\nsamples = 3", shape="box"] ;
92 -> 93 ;
94 [label="X[1] <= 117.5000\nmse = 0.151168386599\nsamples = 2", shape="box"] ;
93 -> 94 ;
95 [label="mse = 0.0000\nsamples = 1\nvalue = [ 8.22881869]", shape="box"] ;
94 -> 95 ;
96 [label="mse = -0.0000\nsamples = 1\nvalue = [ 7.45121111]", shape="box"] ;
94 -> 96 ;
97 [label="mse = -0.0000\nsamples = 1\nvalue = [ 8.9068906]", shape="box"] ;
93 -> 97 ;
98 [label="X[1] <= 193.0000\nmse = 0.179969544725\nsamples = 6", shape="box"] ;
92 -> 98 ;
99 [label="X[1] <= 145.0000\nmse = 0.0548048971822\nsamples = 5", shape="box"] ;
98 -> 99 ;
100 [label="X[1] <= 135.0000\nmse = 0.0583130522492\nsamples = 3", shape="box"] ;
99 -> 100 ;
101 [label="mse = 0.0000\nsamples = 1\nvalue = [ 7.74819285]", shape="box"] ;
100 -> 101 ;
102 [label="mse = 0.0050\nsamples = 2\nvalue = [ 7.25091859]", shape="box"] ;
100 -> 102 ;
103 [label="X[1] <= 157.5000\nmse = 0.00272153464531\nsamples = 2", shape="box"] ;
99 -> 103 ;
104 [label="mse = 0.0000\nsamples = 1\nvalue = [ 7.74819285]", shape="box"] ;
103 -> 104 ;
105 [label="mse = 0.0000\nsamples = 1\nvalue = [ 7.64385619]", shape="box"] ;
103 -> 105 ;
106 [label="mse = -0.0000\nsamples = 1\nvalue = [ 8.51175265]", shape="box"] ;
98 -> 106 ;
107 [label="X[1] <= 106.0000\nmse = 0.75333624142\nsamples = 28", shape="box"] ;
5 -> 107 ;
108 [label="X[1] <= 98.0000\nmse = 0.266406965874\nsamples = 14", shape="box"] ;
107 -> 108 ;
109 [label="X[1] <= 71.5000\nmse = 0.164074354625\nsamples = 13", shape="box"] ;
108 -> 109 ;
110 [label="X[1] <= 57.0000\nmse = 0.0850716953676\nsamples = 7", shape="box"] ;
109 -> 110 ;
111 [label="X[1] <= 49.5000\nmse = 0.023203792097\nsamples = 4", shape="box"] ;
110 -> 111 ;
112 [label="X[1] <= 36.5000\nmse = 0.00152109796963\nsamples = 2", shape="box"] ;
111 -> 112 ;
113 [label="mse = 0.0000\nsamples = 1\nvalue = [ 7.56985561]", shape="box"] ;
112 -> 113 ;
114 [label="mse = 0.0000\nsamples = 1\nvalue = [ 7.4918531]", shape="box"] ;
112 -> 114 ;
115 [label="X[1] <= 54.5000\nmse = 0.000251362946301\nsamples = 2", shape="box"] ;
111 -> 115 ;
116 [label="mse = 0.0000\nsamples = 1\nvalue = [ 7.81378119]", shape="box"] ;
115 -> 116 ;
117 [label="mse = 0.0000\nsamples = 1\nvalue = [ 7.84549005]", shape="box"] ;
115 -> 117 ;
118 [label="X[1] <= 63.5000\nmse = 0.0339257341047\nsamples = 3", shape="box"] ;
110 -> 118 ;
119 [label="mse = 0.0000\nsamples = 1\nvalue = [ 8.40939094]", shape="box"] ;
118 -> 119 ;
120 [label="X[1] <= 69.5000\nmse = 0.00566705405265\nsamples = 2", shape="box"] ;
118 -> 120 ;
121 [label="mse = 0.0000\nsamples = 1\nvalue = [ 8.11634396]", shape="box"] ;
120 -> 121 ;
122 [label="mse = 0.0000\nsamples = 1\nvalue = [ 7.96578428]", shape="box"] ;
120 -> 122 ;
123 [label="X[1] <= 74.5000\nmse = 0.216766423593\nsamples = 6", shape="box"] ;
109 -> 123 ;
124 [label="mse = 0.0000\nsamples = 1\nvalue = [ 6.78135971]", shape="box"] ;
123 -> 124 ;
125 [label="X[1] <= 91.0000\nmse = 0.0926368228164\nsamples = 5", shape="box"] ;
123 -> 125 ;
126 [label="X[1] <= 81.0000\nmse = 0.000867116652593\nsamples = 2", shape="box"] ;
125 -> 126 ;
127 [label="mse = 0.0000\nsamples = 1\nvalue = [ 7.9068906]", shape="box"] ;
126 -> 127 ;
128 [label="mse = 0.0000\nsamples = 1\nvalue = [ 7.96578428]", shape="box"] ;
126 -> 128 ;
129 [label="X[1] <= 96.5000\nmse = 0.127965482968\nsamples = 3", shape="box"] ;
125 -> 129 ;
130 [label="mse = 0.1912\nsamples = 2\nvalue = [ 7.66605325]", shape="box"] ;
129 -> 130 ;
131 [label="mse = -0.0000\nsamples = 1\nvalue = [ 7.71424552]", shape="box"] ;
129 -> 131 ;
132 [label="mse = -0.0000\nsamples = 1\nvalue = [ 6.45121111]", shape="box"] ;
108 -> 132 ;
133 [label="X[1] <= 149.5000\nmse = 0.943150361913\nsamples = 14", shape="box"] ;
107 -> 133 ;
134 [label="X[1] <= 131.5000\nmse = 1.17245580404\nsamples = 8", shape="box"] ;
133 -> 134 ;
135 [label="X[1] <= 122.5000\nmse = 0.997501867922\nsamples = 6", shape="box"] ;
134 -> 135 ;
136 [label="X[1] <= 116.0000\nmse = 0.529063145198\nsamples = 5", shape="box"] ;
135 -> 136 ;
137 [label="X[1] <= 113.5000\nmse = 0.0111834966284\nsamples = 2", shape="box"] ;
136 -> 137 ;
138 [label="mse = 0.0000\nsamples = 1\nvalue = [ 9.10328781]", shape="box"] ;
137 -> 138 ;
139 [label="mse = -0.0000\nsamples = 1\nvalue = [ 8.8917837]", shape="box"] ;
137 -> 139 ;
140 [label="X[1] <= 121.0000\nmse = 0.254674613291\nsamples = 3", shape="box"] ;
136 -> 140 ;
141 [label="X[1] <= 119.0000\nmse = 0.0162890410627\nsamples = 2", shape="box"] ;
140 -> 141 ;
142 [label="mse = 0.0000\nsamples = 1\nvalue = [ 7.27612441]", shape="box"] ;
141 -> 142 ;
143 [label="mse = 0.0000\nsamples = 1\nvalue = [ 7.53138146]", shape="box"] ;
141 -> 143 ;
144 [label="mse = -0.0000\nsamples = 1\nvalue = [ 8.45121111]", shape="box"] ;
140 -> 144 ;
145 [label="mse = -0.0000\nsamples = 1\nvalue = [ 10.25266543]", shape="box"] ;
135 -> 145 ;
146 [label="X[1] <= 141.0000\nmse = 0.216044000425\nsamples = 2", shape="box"] ;
134 -> 146 ;
147 [label="mse = 0.0000\nsamples = 1\nvalue = [ 7.64385619]", shape="box"] ;
146 -> 147 ;
148 [label="mse = 0.0000\nsamples = 1\nvalue = [ 6.71424552]", shape="box"] ;
146 -> 148 ;
149 [label="X[1] <= 165.0000\nmse = 0.504541954841\nsamples = 6", shape="box"] ;
133 -> 149 ;
150 [label="X[1] <= 162.0000\nmse = 0.013635089661\nsamples = 3", shape="box"] ;
149 -> 150 ;
151 [label="X[1] <= 159.0000\nmse = 0.00029267879404\nsamples = 2", shape="box"] ;
150 -> 151 ;
152 [label="mse = 0.0000\nsamples = 1\nvalue = [ 9.32192809]", shape="box"] ;
151 -> 152 ;
153 [label="mse = 0.0000\nsamples = 1\nvalue = [ 9.28771238]", shape="box"] ;
151 -> 153 ;
154 [label="mse = 0.0000\nsamples = 1\nvalue = [ 9.55074679]", shape="box"] ;
150 -> 154 ;
155 [label="X[1] <= 206.5000\nmse = 0.0935588047581\nsamples = 3", shape="box"] ;
149 -> 155 ;
156 [label="X[1] <= 183.5000\nmse = 0.0158179378255\nsamples = 2", shape="box"] ;
155 -> 156 ;
157 [label="mse = 0.0000\nsamples = 1\nvalue = [ 7.71424552]", shape="box"] ;
156 -> 157 ;
158 [label="mse = -0.0000\nsamples = 1\nvalue = [ 7.96578428]", shape="box"] ;
156 -> 158 ;
159 [label="mse = 0.0000\nsamples = 1\nvalue = [ 8.45121111]", shape="box"] ;
155 -> 159 ;
160 [label="X[1] <= 117.5000\nmse = 0.874720098104\nsamples = 173", shape="box"] ;
0 -> 160 ;
161 [label="X[0] <= 6.5000\nmse = 0.649704149247\nsamples = 90", shape="box"] ;
160 -> 161 ;
162 [label="X[1] <= 116.5000\nmse = 0.579396326078\nsamples = 26", shape="box"] ;
161 -> 162 ;
163 [label="X[1] <= 74.0000\nmse = 0.500876023045\nsamples = 25", shape="box"] ;
162 -> 163 ;
164 [label="X[1] <= 70.0000\nmse = 0.381911228577\nsamples = 10", shape="box"] ;
163 -> 164 ;
165 [label="X[1] <= 58.5000\nmse = 0.318585637178\nsamples = 9", shape="box"] ;
164 -> 165 ;
166 [label="X[1] <= 46.5000\nmse = 0.0714613332244\nsamples = 6", shape="box"] ;
165 -> 166 ;
167 [label="mse = 0.0000\nsamples = 1\nvalue = [ 7.45121111]", shape="box"] ;
166 -> 167 ;
168 [label="X[1] <= 55.0000\nmse = 0.0451363374733\nsamples = 5", shape="box"] ;
166 -> 168 ;
169 [label="X[0] <= 5.5000\nmse = 0.0132368667087\nsamples = 3", shape="box"] ;
168 -> 169 ;
170 [label="mse = 0.0000\nsamples = 1\nvalue = [ 8.21674586]", shape="box"] ;
169 -> 170 ;
171 [label="X[1] <= 49.5000\nmse = 0.00320416057949\nsamples = 2", shape="box"] ;
169 -> 171 ;
172 [label="mse = 0.0000\nsamples = 1\nvalue = [ 7.93663794]", shape="box"] ;
171 -> 172 ;
173 [label="mse = 0.0000\nsamples = 1\nvalue = [ 8.04984855]", shape="box"] ;
171 -> 173 ;
174 [label="X[1] <= 56.5000\nmse = 0.0363720408473\nsamples = 2", shape="box"] ;
168 -> 174 ;
175 [label="mse = 0.0000\nsamples = 1\nvalue = [ 7.56985561]", shape="box"] ;
174 -> 175 ;
176 [label="mse = -0.0000\nsamples = 1\nvalue = [ 7.95128471]", shape="box"] ;
174 -> 176 ;
177 [label="X[1] <= 64.0000\nmse = 0.600390696064\nsamples = 3", shape="box"] ;
165 -> 177 ;
178 [label="mse = 0.0000\nsamples = 1\nvalue = [ 9.45121111]", shape="box"] ;
177 -> 178 ;
179 [label="mse = 0.1140\nsamples = 2\nvalue = [ 7.91504713]", shape="box"] ;
177 -> 179 ;
180 [label="mse = 0.0000\nsamples = 1\nvalue = [ 7.02236781]", shape="box"] ;
164 -> 180 ;
181 [label="X[1] <= 88.0000\nmse = 0.464981877984\nsamples = 15", shape="box"] ;
163 -> 181 ;
182 [label="X[1] <= 76.5000\nmse = 0.157108855739\nsamples = 7", shape="box"] ;
181 -> 182 ;
183 [label="X[0] <= 5.5000\nmse = 0.0970105555244\nsamples = 2", shape="box"] ;
182 -> 183 ;
184 [label="mse = 0.0000\nsamples = 1\nvalue = [ 8.58871464]", shape="box"] ;
183 -> 184 ;
185 [label="mse = 0.0000\nsamples = 1\nvalue = [ 7.96578428]", shape="box"] ;
183 -> 185 ;
186 [label="X[1] <= 77.5000\nmse = 0.0716066544867\nsamples = 5", shape="box"] ;
182 -> 186 ;
187 [label="mse = 0.0000\nsamples = 1\nvalue = [ 9.38801729]", shape="box"] ;
186 -> 187 ;
188 [label="X[1] <= 80.0000\nmse = 0.0139928500747\nsamples = 4", shape="box"] ;
186 -> 188 ;
189 [label="mse = 0.0000\nsamples = 1\nvalue = [ 8.96578428]", shape="box"] ;
188 -> 189 ;
190 [label="X[1] <= 83.5000\nmse = 0.00223211006815\nsamples = 3", shape="box"] ;
188 -> 190 ;
191 [label="X[1] <= 82.5000\nmse = 0.000119877515075\nsamples = 2", shape="box"] ;
190 -> 191 ;
192 [label="mse = 0.0000\nsamples = 1\nvalue = [ 8.73131903]", shape="box"] ;
191 -> 192 ;
193 [label="mse = -0.0000\nsamples = 1\nvalue = [ 8.75321675]", shape="box"] ;
191 -> 193 ;
194 [label="mse = 0.0000\nsamples = 1\nvalue = [ 8.64385619]", shape="box"] ;
190 -> 194 ;
195 [label="X[1] <= 108.0000\nmse = 0.643816486467\nsamples = 8", shape="box"] ;
181 -> 195 ;
196 [label="X[0] <= 5.5000\nmse = 0.619366980277\nsamples = 6", shape="box"] ;
195 -> 196 ;
197 [label="X[1] <= 99.0000\nmse = 0.913281810993\nsamples = 3", shape="box"] ;
196 -> 197 ;
198 [label="X[1] <= 94.5000\nmse = 0.012364597267\nsamples = 2", shape="box"] ;
197 -> 198 ;
199 [label="mse = 0.0000\nsamples = 1\nvalue = [ 8.45121111]", shape="box"] ;
198 -> 199 ;
200 [label="mse = 0.0000\nsamples = 1\nvalue = [ 8.22881869]", shape="box"] ;
198 -> 200 ;
201 [label="mse = 0.0000\nsamples = 1\nvalue = [ 6.32192809]", shape="box"] ;
197 -> 201 ;
202 [label="X[1] <= 97.0000\nmse = 0.0396528433905\nsamples = 3", shape="box"] ;
196 -> 202 ;
203 [label="mse = 0.0000\nsamples = 1\nvalue = [ 8.22881869]", shape="box"] ;
202 -> 203 ;
204 [label="X[1] <= 102.5000\nmse = 0.0310943175918\nsamples = 2", shape="box"] ;
202 -> 204 ;
205 [label="mse = 0.0000\nsamples = 1\nvalue = [ 8.69696753]", shape="box"] ;
204 -> 205 ;
206 [label="mse = -0.0000\nsamples = 1\nvalue = [ 8.34429591]", shape="box"] ;
204 -> 206 ;
207 [label="X[0] <= 5.5000\nmse = 0.0618764777932\nsamples = 2", shape="box"] ;
195 -> 207 ;
208 [label="mse = 0.0000\nsamples = 1\nvalue = [ 8.73131903]", shape="box"] ;
207 -> 208 ;
209 [label="mse = 0.0000\nsamples = 1\nvalue = [ 9.22881869]", shape="box"] ;
207 -> 209 ;
210 [label="mse = 0.0000\nsamples = 1\nvalue = [ 6.64385619]", shape="box"] ;
162 -> 210 ;
211 [label="X[1] <= 50.5000\nmse = 0.564399305504\nsamples = 64", shape="box"] ;
161 -> 211 ;
212 [label="X[0] <= 9.5000\nmse = 0.466476265868\nsamples = 12", shape="box"] ;
211 -> 212 ;
213 [label="X[1] <= 41.0000\nmse = 0.295951598342\nsamples = 5", shape="box"] ;
212 -> 213 ;
214 [label="X[0] <= 8.5000\nmse = 0.0350430003721\nsamples = 2", shape="box"] ;
213 -> 214 ;
215 [label="mse = 0.0000\nsamples = 1\nvalue = [ 7.0768156]", shape="box"] ;
214 -> 215 ;
216 [label="mse = -0.0000\nsamples = 1\nvalue = [ 7.45121111]", shape="box"] ;
214 -> 216 ;
217 [label="X[0] <= 7.5000\nmse = 0.0286785552441\nsamples = 3", shape="box"] ;
213 -> 217 ;
218 [label="X[1] <= 46.0000\nmse = 0.00107540262617\nsamples = 2", shape="box"] ;
217 -> 218 ;
219 [label="mse = 0.0000\nsamples = 1\nvalue = [ 8.16323203]", shape="box"] ;
218 -> 219 ;
220 [label="mse = 0.0000\nsamples = 1\nvalue = [ 8.22881869]", shape="box"] ;
218 -> 220 ;
221 [label="mse = 0.0000\nsamples = 1\nvalue = [ 8.55074679]", shape="box"] ;
217 -> 221 ;
222 [label="X[0] <= 10.5000\nmse = 0.418371950452\nsamples = 7", shape="box"] ;
212 -> 222 ;
223 [label="mse = 0.0000\nsamples = 1\nvalue = [ 9.81378119]", shape="box"] ;
222 -> 223 ;
224 [label="X[0] <= 17.5000\nmse = 0.169004387728\nsamples = 6", shape="box"] ;
222 -> 224 ;
225 [label="X[1] <= 45.5000\nmse = 0.102478487642\nsamples = 5", shape="box"] ;
224 -> 225 ;
226 [label="X[0] <= 13.5000\nmse = 0.00647342559019\nsamples = 4", shape="box"] ;
225 -> 226 ;
227 [label="mse = 0.0000\nsamples = 1\nvalue = [ 7.9068906]", shape="box"] ;
226 -> 227 ;
228 [label="X[0] <= 15.0000\nmse = 0.0014551212562\nsamples = 3", shape="box"] ;
226 -> 228 ;
229 [label="mse = 0.0000\nsamples = 1\nvalue = [ 8.10328781]", shape="box"] ;
228 -> 229 ;
230 [label="X[1] <= 42.5000\nmse = 0.00163701141319\nsamples = 2", shape="box"] ;
228 -> 230 ;
231 [label="mse = 0.0000\nsamples = 1\nvalue = [ 8.02236781]", shape="box"] ;
230 -> 231 ;
232 [label="mse = 0.0000\nsamples = 1\nvalue = [ 8.10328781]", shape="box"] ;
230 -> 232 ;
233 [label="mse = 0.0000\nsamples = 1\nvalue = [ 8.81378119]", shape="box"] ;
225 -> 233 ;
234 [label="mse = -0.0000\nsamples = 1\nvalue = [ 8.96578428]", shape="box"] ;
224 -> 234 ;
235 [label="X[1] <= 90.5000\nmse = 0.495191170796\nsamples = 52", shape="box"] ;
211 -> 235 ;
236 [label="X[1] <= 55.5000\nmse = 0.407061064633\nsamples = 33", shape="box"] ;
235 -> 236 ;
237 [label="X[1] <= 54.0000\nmse = 0.41103935825\nsamples = 4", shape="box"] ;
236 -> 237 ;
238 [label="X[0] <= 18.0000\nmse = 0.139118541773\nsamples = 3", shape="box"] ;
237 -> 238 ;
239 [label="X[1] <= 52.5000\nmse = 0.0319608590016\nsamples = 2", shape="box"] ;
238 -> 239 ;
240 [label="mse = 0.0000\nsamples = 1\nvalue = [ 8.64385619]", shape="box"] ;
239 -> 240 ;
241 [label="mse = 0.0000\nsamples = 1\nvalue = [ 9.00140819]", shape="box"] ;
239 -> 241 ;
242 [label="mse = 0.0000\nsamples = 1\nvalue = [ 9.55074679]", shape="box"] ;
238 -> 242 ;
243 [label="mse = 0.0000\nsamples = 1\nvalue = [ 10.34429591]", shape="box"] ;
237 -> 243 ;
244 [label="X[0] <= 16.5000\nmse = 0.355849602953\nsamples = 29", shape="box"] ;
236 -> 244 ;
245 [label="X[0] <= 15.5000\nmse = 0.320778532712\nsamples = 24", shape="box"] ;
244 -> 245 ;
246 [label="X[1] <= 71.5000\nmse = 0.264338433118\nsamples = 22", shape="box"] ;
245 -> 246 ;
247 [label="X[0] <= 9.5000\nmse = 0.236214246618\nsamples = 8", shape="box"] ;
246 -> 247 ;
248 [label="X[0] <= 8.0000\nmse = 0.0939351629007\nsamples = 2", shape="box"] ;
247 -> 248 ;
249 [label="mse = 0.0000\nsamples = 1\nvalue = [ 8.73131903]", shape="box"] ;
248 -> 249 ;
250 [label="mse = 0.0000\nsamples = 1\nvalue = [ 9.34429591]", shape="box"] ;
248 -> 250 ;
251 [label="X[0] <= 14.5000\nmse = 0.127647593968\nsamples = 6", shape="box"] ;
247 -> 251 ;
252 [label="X[0] <= 11.0000\nmse = 0.0509756267653\nsamples = 4", shape="box"] ;
251 -> 252 ;
253 [label="mse = 0.0000\nsamples = 1\nvalue = [ 8.4164471]", shape="box"] ;
252 -> 253 ;
254 [label="X[1] <= 68.0000\nmse = 0.00513443120376\nsamples = 3", shape="box"] ;
252 -> 254 ;
255 [label="mse = 0.0000\nsamples = 2\nvalue = [ 7.96578428]", shape="box"] ;
254 -> 255 ;
256 [label="mse = 0.0000\nsamples = 1\nvalue = [ 7.81378119]", shape="box"] ;
254 -> 256 ;
257 [label="mse = 0.0228\nsamples = 2\nvalue = [ 8.66276692]", shape="box"] ;
251 -> 257 ;
258 [label="X[1] <= 84.5000\nmse = 0.181468807973\nsamples = 14", shape="box"] ;
246 -> 258 ;
259 [label="X[0] <= 11.0000\nmse = 0.144413270263\nsamples = 11", shape="box"] ;
258 -> 259 ;
260 [label="X[0] <= 9.5000\nmse = 0.151517767974\nsamples = 7", shape="box"] ;
259 -> 260 ;
261 [label="X[0] <= 7.5000\nmse = 0.148971477053\nsamples = 5", shape="box"] ;
260 -> 261 ;
262 [label="X[1] <= 80.5000\nmse = 0.039918549777\nsamples = 3", shape="box"] ;
261 -> 262 ;
263 [label="X[1] <= 76.5000\nmse = 7.28704189896e-05\nsamples = 2", shape="box"] ;
262 -> 263 ;
264 [label="mse = 0.0000\nsamples = 1\nvalue = [ 9.46828395]", shape="box"] ;
263 -> 264 ;
265 [label="mse = 0.0000\nsamples = 1\nvalue = [ 9.45121111]", shape="box"] ;
263 -> 265 ;
266 [label="mse = -0.0000\nsamples = 1\nvalue = [ 9.03617361]", shape="box"] ;
262 -> 266 ;
267 [label="X[1] <= 79.5000\nmse = 0.164986899783\nsamples = 2", shape="box"] ;
261 -> 267 ;
268 [label="mse = 0.0000\nsamples = 1\nvalue = [ 8.4164471]", shape="box"] ;
267 -> 268 ;
269 [label="mse = -0.0000\nsamples = 1\nvalue = [ 9.22881869]", shape="box"] ;
267 -> 269 ;
270 [label="X[1] <= 79.0000\nmse = 0.00344316346573\nsamples = 2", shape="box"] ;
260 -> 270 ;
271 [label="mse = 0.0000\nsamples = 1\nvalue = [ 9.52649924]", shape="box"] ;
270 -> 271 ;
272 [label="mse = -0.0000\nsamples = 1\nvalue = [ 9.64385619]", shape="box"] ;
270 -> 272 ;
273 [label="X[0] <= 13.0000\nmse = 0.00453484539044\nsamples = 4", shape="box"] ;
259 -> 273 ;
274 [label="X[1] <= 77.5000\nmse = 0.00308192400931\nsamples = 2", shape="box"] ;
273 -> 274 ;
275 [label="mse = 0.0000\nsamples = 1\nvalue = [ 8.81378119]", shape="box"] ;
274 -> 275 ;
276 [label="mse = -0.0000\nsamples = 1\nvalue = [ 8.70275103]", shape="box"] ;
274 -> 276 ;
277 [label="X[1] <= 82.0000\nmse = 0.00152109796963\nsamples = 2", shape="box"] ;
273 -> 277 ;
278 [label="mse = 0.0000\nsamples = 1\nvalue = [ 8.8917837]", shape="box"] ;
277 -> 278 ;
279 [label="mse = 0.0000\nsamples = 1\nvalue = [ 8.81378119]", shape="box"] ;
277 -> 279 ;
280 [label="X[1] <= 87.5000\nmse = 0.0571143654015\nsamples = 3", shape="box"] ;
258 -> 280 ;
281 [label="X[0] <= 7.5000\nmse = 0.018634774572\nsamples = 2", shape="box"] ;
280 -> 281 ;
282 [label="mse = 0.0000\nsamples = 1\nvalue = [ 8.22881869]", shape="box"] ;
281 -> 282 ;
283 [label="mse = 0.0000\nsamples = 1\nvalue = [ 8.50183718]", shape="box"] ;
281 -> 283 ;
284 [label="mse = 0.0000\nsamples = 1\nvalue = [ 8.81378119]", shape="box"] ;
280 -> 284 ;
285 [label="X[1] <= 73.5000\nmse = 0.0855452818119\nsamples = 2", shape="box"] ;
245 -> 285 ;
286 [label="mse = 0.0000\nsamples = 1\nvalue = [ 10.03617361]", shape="box"] ;
285 -> 286 ;
287 [label="mse = 0.0000\nsamples = 1\nvalue = [ 9.45121111]", shape="box"] ;
285 -> 287 ;
288 [label="X[0] <= 19.0000\nmse = 0.128176819068\nsamples = 5", shape="box"] ;
244 -> 288 ;
289 [label="X[1] <= 64.5000\nmse = 0.0749932588567\nsamples = 4", shape="box"] ;
288 -> 289 ;
290 [label="mse = 0.0000\nsamples = 1\nvalue = [ 7.87651695]", shape="box"] ;
289 -> 290 ;
291 [label="X[1] <= 69.0000\nmse = 0.0215415977561\nsamples = 3", shape="box"] ;
289 -> 291 ;
292 [label="mse = 0.0000\nsamples = 1\nvalue = [ 8.64385619]", shape="box"] ;
291 -> 292 ;
293 [label="X[0] <= 17.5000\nmse = 0.000125079764928\nsamples = 2", shape="box"] ;
291 -> 293 ;
294 [label="mse = 0.0000\nsamples = 1\nvalue = [ 8.32192809]", shape="box"] ;
293 -> 294 ;
295 [label="mse = 0.0000\nsamples = 1\nvalue = [ 8.34429591]", shape="box"] ;
293 -> 295 ;
296 [label="mse = 0.0000\nsamples = 1\nvalue = [ 7.64385619]", shape="box"] ;
288 -> 296 ;
297 [label="X[0] <= 11.0000\nmse = 0.54206586883\nsamples = 19", shape="box"] ;
235 -> 297 ;
298 [label="X[0] <= 9.5000\nmse = 0.844587683121\nsamples = 9", shape="box"] ;
297 -> 298 ;
299 [label="X[0] <= 7.5000\nmse = 0.195533586544\nsamples = 8", shape="box"] ;
298 -> 299 ;
300 [label="X[1] <= 99.0000\nmse = 0.0834848389801\nsamples = 5", shape="box"] ;
299 -> 300 ;
301 [label="mse = 0.0000\nsamples = 1\nvalue = [ 9.77313921]", shape="box"] ;
300 -> 301 ;
302 [label="X[1] <= 111.0000\nmse = 0.0794847329377\nsamples = 4", shape="box"] ;
300 -> 302 ;
303 [label="X[1] <= 107.0000\nmse = 0.0984396322905\nsamples = 3", shape="box"] ;
302 -> 303 ;
304 [label="mse = 0.0000\nsamples = 1\nvalue = [ 9.55074679]", shape="box"] ;
303 -> 304 ;
305 [label="mse = 0.1250\nsamples = 2\nvalue = [ 9.29024706]", shape="box"] ;
303 -> 305 ;
306 [label="mse = -0.0000\nsamples = 1\nvalue = [ 9.55074679]", shape="box"] ;
302 -> 306 ;
307 [label="X[0] <= 8.5000\nmse = 0.123950581302\nsamples = 3", shape="box"] ;
299 -> 307 ;
308 [label="mse = 0.0000\nsamples = 1\nvalue = [ 8.35167691]", shape="box"] ;
307 -> 308 ;
309 [label="X[1] <= 102.0000\nmse = 0.00108530501625\nsamples = 2", shape="box"] ;
307 -> 309 ;
310 [label="mse = 0.0000\nsamples = 1\nvalue = [ 9.06339508]", shape="box"] ;
309 -> 310 ;
311 [label="mse = -0.0000\nsamples = 1\nvalue = [ 9.12928302]", shape="box"] ;
309 -> 311 ;
312 [label="mse = -0.0000\nsamples = 1\nvalue = [ 6.64385619]", shape="box"] ;
298 -> 312 ;
313 [label="X[1] <= 93.0000\nmse = 0.149138064233\nsamples = 10", shape="box"] ;
297 -> 313 ;
314 [label="X[1] <= 91.5000\nmse = 0.0430640314519\nsamples = 2", shape="box"] ;
313 -> 314 ;
315 [label="mse = 0.0000\nsamples = 1\nvalue = [ 9.68825031]", shape="box"] ;
314 -> 315 ;
316 [label="mse = -0.0000\nsamples = 1\nvalue = [ 10.10328781]", shape="box"] ;
314 -> 316 ;
317 [label="X[0] <= 18.5000\nmse = 0.117687731286\nsamples = 8", shape="box"] ;
313 -> 317 ;
318 [label="X[0] <= 16.0000\nmse = 0.104573265714\nsamples = 7", shape="box"] ;
317 -> 318 ;
319 [label="X[1] <= 104.5000\nmse = 0.0975553324123\nsamples = 6", shape="box"] ;
318 -> 319 ;
320 [label="X[1] <= 102.0000\nmse = 0.0858942752622\nsamples = 4", shape="box"] ;
319 -> 320 ;
321 [label="X[1] <= 95.0000\nmse = 0.0141097570895\nsamples = 3", shape="box"] ;
320 -> 321 ;
322 [label="mse = 0.0000\nsamples = 1\nvalue = [ 9.22881869]", shape="box"] ;
321 -> 322 ;
323 [label="X[1] <= 98.5000\nmse = 0.00357490149757\nsamples = 2", shape="box"] ;
321 -> 323 ;
324 [label="mse = 0.0000\nsamples = 1\nvalue = [ 9.51832465]", shape="box"] ;
323 -> 324 ;
325 [label="mse = -0.0000\nsamples = 1\nvalue = [ 9.39874369]", shape="box"] ;
323 -> 325 ;
326 [label="mse = -0.0000\nsamples = 1\nvalue = [ 8.74819285]", shape="box"] ;
320 -> 326 ;
327 [label="X[0] <= 13.0000\nmse = 0.00999375802525\nsamples = 2", shape="box"] ;
319 -> 327 ;
328 [label="mse = 0.0000\nsamples = 1\nvalue = [ 9.53138146]", shape="box"] ;
327 -> 328 ;
329 [label="mse = 0.0000\nsamples = 1\nvalue = [ 9.73131903]", shape="box"] ;
327 -> 329 ;
330 [label="mse = 0.0000\nsamples = 1\nvalue = [ 9.77313921]", shape="box"] ;
318 -> 330 ;
331 [label="mse = 0.0000\nsamples = 1\nvalue = [ 8.92925841]", shape="box"] ;
317 -> 331 ;
332 [label="X[1] <= 208.5000\nmse = 0.523679306522\nsamples = 83", shape="box"] ;
160 -> 332 ;
333 [label="X[1] <= 185.0000\nmse = 0.39283492807\nsamples = 80", shape="box"] ;
332 -> 333 ;
334 [label="X[0] <= 5.5000\nmse = 0.364684300724\nsamples = 76", shape="box"] ;
333 -> 334 ;
335 [label="X[1] <= 145.5000\nmse = 0.0692308114351\nsamples = 8", shape="box"] ;
334 -> 335 ;
336 [label="X[1] <= 133.0000\nmse = 0.162955492543\nsamples = 2", shape="box"] ;
335 -> 336 ;
337 [label="mse = 0.0000\nsamples = 1\nvalue = [ 9.45121111]", shape="box"] ;
336 -> 337 ;
338 [label="mse = 0.0000\nsamples = 1\nvalue = [ 8.64385619]", shape="box"] ;
336 -> 338 ;
339 [label="X[1] <= 181.0000\nmse = 0.0179780408515\nsamples = 6", shape="box"] ;
335 -> 339 ;
340 [label="X[1] <= 173.5000\nmse = 0.00532962427951\nsamples = 4", shape="box"] ;
339 -> 340 ;
341 [label="X[1] <= 163.0000\nmse = 0.0023036613775\nsamples = 3", shape="box"] ;
340 -> 341 ;
342 [label="X[1] <= 155.0000\nmse = 0.00176670015358\nsamples = 2", shape="box"] ;
341 -> 342 ;
343 [label="mse = 0.0000\nsamples = 1\nvalue = [ 9.28771238]", shape="box"] ;
342 -> 343 ;
344 [label="mse = -0.0000\nsamples = 1\nvalue = [ 9.37177664]", shape="box"] ;
342 -> 344 ;
345 [label="mse = -0.0000\nsamples = 1\nvalue = [ 9.25856603]", shape="box"] ;
341 -> 345 ;
346 [label="mse = -0.0000\nsamples = 1\nvalue = [ 9.16741815]", shape="box"] ;
340 -> 346 ;
347 [label="X[1] <= 183.5000\nmse = 0.0223270060718\nsamples = 2", shape="box"] ;
339 -> 347 ;
348 [label="mse = 0.0000\nsamples = 1\nvalue = [ 9.5980525]", shape="box"] ;
347 -> 348 ;
349 [label="mse = -0.0000\nsamples = 1\nvalue = [ 9.29920802]", shape="box"] ;
347 -> 349 ;
350 [label="X[1] <= 159.5000\nmse = 0.37327910737\nsamples = 68", shape="box"] ;
334 -> 350 ;
351 [label="X[1] <= 153.0000\nmse = 0.390655321211\nsamples = 51", shape="box"] ;
350 -> 351 ;
352 [label="X[1] <= 150.5000\nmse = 0.393777180977\nsamples = 44", shape="box"] ;
351 -> 352 ;
353 [label="X[0] <= 12.5000\nmse = 0.355903496548\nsamples = 42", shape="box"] ;
352 -> 353 ;
354 [label="X[0] <= 9.5000\nmse = 0.331043263551\nsamples = 28", shape="box"] ;
353 -> 354 ;
355 [label="X[1] <= 142.5000\nmse = 0.282952868594\nsamples = 19", shape="box"] ;
354 -> 355 ;
356 [label="X[0] <= 6.5000\nmse = 0.2537552798\nsamples = 13", shape="box"] ;
355 -> 356 ;
357 [label="X[1] <= 131.5000\nmse = 0.328768679424\nsamples = 3", shape="box"] ;
356 -> 357 ;
358 [label="X[1] <= 128.5000\nmse = 0.066196387549\nsamples = 2", shape="box"] ;
357 -> 358 ;
359 [label="mse = 0.0000\nsamples = 1\nvalue = [ 8.58871464]", shape="box"] ;
358 -> 359 ;
360 [label="mse = 0.0000\nsamples = 1\nvalue = [ 9.10328781]", shape="box"] ;
358 -> 360 ;
361 [label="mse = 0.0000\nsamples = 1\nvalue = [ 9.97775645]", shape="box"] ;
357 -> 361 ;
362 [label="X[1] <= 118.5000\nmse = 0.162264462718\nsamples = 10", shape="box"] ;
356 -> 362 ;
363 [label="mse = 0.0000\nsamples = 1\nvalue = [ 10.34429591]", shape="box"] ;
362 -> 363 ;
364 [label="X[0] <= 8.5000\nmse = 0.139577206026\nsamples = 9", shape="box"] ;
362 -> 364 ;
365 [label="X[1] <= 125.5000\nmse = 0.140676966906\nsamples = 6", shape="box"] ;
364 -> 365 ;
366 [label="X[1] <= 119.5000\nmse = 0.0845270802837\nsamples = 3", shape="box"] ;
365 -> 366 ;
367 [label="mse = 0.0000\nsamples = 1\nvalue = [ 9.77313921]", shape="box"] ;
366 -> 367 ;
368 [label="X[0] <= 7.5000\nmse = 0.00393950058915\nsamples = 2", shape="box"] ;
366 -> 368 ;
369 [label="mse = 0.0000\nsamples = 1\nvalue = [ 9.10328781]", shape="box"] ;
368 -> 369 ;
370 [label="mse = -0.0000\nsamples = 1\nvalue = [ 9.22881869]", shape="box"] ;
368 -> 370 ;
371 [label="X[1] <= 129.0000\nmse = 0.0609266244906\nsamples = 3", shape="box"] ;
365 -> 371 ;
372 [label="mse = 0.0000\nsamples = 1\nvalue = [ 10.2086404]", shape="box"] ;
371 -> 372 ;
373 [label="X[0] <= 7.5000\nmse = 0.0151264468312\nsamples = 2", shape="box"] ;
371 -> 373 ;
374 [label="mse = 0.0000\nsamples = 1\nvalue = [ 9.60733031]", shape="box"] ;
373 -> 374 ;
375 [label="mse = 0.0000\nsamples = 1\nvalue = [ 9.85330956]", shape="box"] ;
373 -> 375 ;
376 [label="X[1] <= 129.0000\nmse = 0.101699828353\nsamples = 3", shape="box"] ;
364 -> 376 ;
377 [label="X[1] <= 121.0000\nmse = 0.0806244754918\nsamples = 2", shape="box"] ;
376 -> 377 ;
378 [label="mse = 0.0000\nsamples = 1\nvalue = [ 9.73131903]", shape="box"] ;
377 -> 378 ;
379 [label="mse = 0.0000\nsamples = 1\nvalue = [ 10.29920802]", shape="box"] ;
377 -> 379 ;
380 [label="mse = 0.0000\nsamples = 1\nvalue = [ 9.55074679]", shape="box"] ;
376 -> 380 ;
381 [label="X[0] <= 8.5000\nmse = 0.199299575426\nsamples = 6", shape="box"] ;
355 -> 381 ;
382 [label="X[1] <= 148.0000\nmse = 0.0798919948063\nsamples = 5", shape="box"] ;
381 -> 382 ;
383 [label="X[1] <= 146.5000\nmse = 0.067231018847\nsamples = 4", shape="box"] ;
382 -> 383 ;
384 [label="X[0] <= 7.0000\nmse = 0.0139516666154\nsamples = 2", shape="box"] ;
383 -> 384 ;
385 [label="mse = 0.0000\nsamples = 1\nvalue = [ 9.67065625]", shape="box"] ;
384 -> 385 ;
386 [label="mse = -0.0000\nsamples = 1\nvalue = [ 9.9068906]", shape="box"] ;
384 -> 386 ;
387 [label="X[0] <= 6.5000\nmse = 0.00882969847959\nsamples = 2", shape="box"] ;
383 -> 387 ;
388 [label="mse = 0.0000\nsamples = 1\nvalue = [ 10.3553511]", shape="box"] ;
387 -> 388 ;
389 [label="mse = -0.0000\nsamples = 1\nvalue = [ 10.16741815]", shape="box"] ;
387 -> 389 ;
390 [label="mse = -0.0000\nsamples = 1\nvalue = [ 9.62113611]", shape="box"] ;
382 -> 390 ;
391 [label="mse = 0.0000\nsamples = 1\nvalue = [ 10.92184094]", shape="box"] ;
381 -> 391 ;
392 [label="X[1] <= 138.5000\nmse = 0.242492510603\nsamples = 9", shape="box"] ;
354 -> 392 ;
393 [label="X[1] <= 122.5000\nmse = 0.0327664176779\nsamples = 6", shape="box"] ;
392 -> 393 ;
394 [label="mse = 0.0000\nsamples = 1\nvalue = [ 9.21674586]", shape="box"] ;
393 -> 394 ;
395 [label="X[0] <= 11.5000\nmse = 0.0126580434799\nsamples = 5", shape="box"] ;
393 -> 395 ;
396 [label="X[0] <= 10.5000\nmse = 0.0081754818864\nsamples = 4", shape="box"] ;
395 -> 396 ;
397 [label="X[1] <= 132.5000\nmse = 0.000598037254804\nsamples = 2", shape="box"] ;
396 -> 397 ;
398 [label="mse = 0.0000\nsamples = 1\nvalue = [ 9.55074679]", shape="box"] ;
397 -> 398 ;
399 [label="mse = 0.0000\nsamples = 1\nvalue = [ 9.50183718]", shape="box"] ;
397 -> 399 ;
400 [label="X[1] <= 131.0000\nmse = 0.0104877867873\nsamples = 2", shape="box"] ;
396 -> 400 ;
401 [label="mse = 0.0000\nsamples = 1\nvalue = [ 9.52649924]", shape="box"] ;
400 -> 401 ;
402 [label="mse = 0.0000\nsamples = 1\nvalue = [ 9.73131903]", shape="box"] ;
400 -> 402 ;
403 [label="mse = -0.0000\nsamples = 1\nvalue = [ 9.77313921]", shape="box"] ;
395 -> 403 ;
404 [label="X[1] <= 146.0000\nmse = 0.160344191791\nsamples = 3", shape="box"] ;
392 -> 404 ;
405 [label="mse = 0.0000\nsamples = 2\nvalue = [ 8.96578428]", shape="box"] ;
404 -> 405 ;
406 [label="mse = 0.0000\nsamples = 1\nvalue = [ 8.11634396]", shape="box"] ;
404 -> 406 ;
407 [label="X[1] <= 123.5000\nmse = 0.357580698315\nsamples = 14", shape="box"] ;
353 -> 407 ;
408 [label="mse = 0.0000\nsamples = 1\nvalue = [ 9.06339508]", shape="box"] ;
407 -> 408 ;
409 [label="X[1] <= 126.5000\nmse = 0.328689812685\nsamples = 13", shape="box"] ;
407 -> 409 ;
410 [label="mse = 0.0000\nsamples = 1\nvalue = [ 10.9110706]", shape="box"] ;
409 -> 410 ;
411 [label="X[0] <= 13.5000\nmse = 0.273035860074\nsamples = 12", shape="box"] ;
409 -> 411 ;
412 [label="X[1] <= 138.0000\nmse = 0.0159726715838\nsamples = 2", shape="box"] ;
411 -> 412 ;
413 [label="mse = 0.0000\nsamples = 1\nvalue = [ 9.19844504]", shape="box"] ;
412 -> 413 ;
414 [label="mse = 0.0000\nsamples = 1\nvalue = [ 9.45121111]", shape="box"] ;
412 -> 414 ;
415 [label="X[1] <= 141.5000\nmse = 0.252582358053\nsamples = 10", shape="box"] ;
411 -> 415 ;
416 [label="X[1] <= 129.5000\nmse = 0.172132765512\nsamples = 7", shape="box"] ;
415 -> 416 ;
417 [label="mse = 0.0000\nsamples = 1\nvalue = [ 10.55074679]", shape="box"] ;
416 -> 417 ;
418 [label="X[1] <= 140.0000\nmse = 0.0863796522062\nsamples = 6", shape="box"] ;
416 -> 418 ;
419 [label="X[1] <= 135.0000\nmse = 0.0115379184212\nsamples = 5", shape="box"] ;
418 -> 419 ;
420 [label="X[0] <= 15.5000\nmse = 0.00464940311774\nsamples = 2", shape="box"] ;
419 -> 420 ;
421 [label="mse = 0.0000\nsamples = 1\nvalue = [ 9.73131903]", shape="box"] ;
420 -> 421 ;
422 [label="mse = 0.0000\nsamples = 1\nvalue = [ 9.59494597]", shape="box"] ;
420 -> 422 ;
423 [label="X[0] <= 14.5000\nmse = 0.0010543594672\nsamples = 3", shape="box"] ;
419 -> 423 ;
424 [label="mse = 0.0000\nsamples = 1\nvalue = [ 9.81378119]", shape="box"] ;
423 -> 424 ;
425 [label="X[0] <= 16.0000\nmse = 0.000163016810788\nsamples = 2", shape="box"] ;
423 -> 425 ;
426 [label="mse = 0.0000\nsamples = 1\nvalue = [ 9.8662481]", shape="box"] ;
425 -> 426 ;
427 [label="mse = 0.0000\nsamples = 1\nvalue = [ 9.8917837]", shape="box"] ;
425 -> 427 ;
428 [label="mse = 0.0000\nsamples = 1\nvalue = [ 9.03617361]", shape="box"] ;
418 -> 428 ;
429 [label="X[1] <= 149.0000\nmse = 0.13564696795\nsamples = 3", shape="box"] ;
415 -> 429 ;
430 [label="X[0] <= 16.0000\nmse = 0.0324687451116\nsamples = 2", shape="box"] ;
429 -> 430 ;
431 [label="mse = 0.0000\nsamples = 1\nvalue = [ 10.8622189]", shape="box"] ;
430 -> 431 ;
432 [label="mse = 0.0000\nsamples = 1\nvalue = [ 10.50183718]", shape="box"] ;
430 -> 432 ;
433 [label="mse = 0.0000\nsamples = 1\nvalue = [ 9.96578428]", shape="box"] ;
429 -> 433 ;
434 [label="X[1] <= 151.5000\nmse = 0.481584405021\nsamples = 2", shape="box"] ;
352 -> 434 ;
435 [label="mse = 0.0000\nsamples = 1\nvalue = [ 11.2644426]", shape="box"] ;
434 -> 435 ;
436 [label="mse = 0.0000\nsamples = 1\nvalue = [ 9.87651695]", shape="box"] ;
434 -> 436 ;
437 [label="X[0] <= 12.0000\nmse = 0.183392900567\nsamples = 7", shape="box"] ;
351 -> 437 ;
438 [label="X[0] <= 9.5000\nmse = 0.20874776279\nsamples = 5", shape="box"] ;
437 -> 438 ;
439 [label="X[0] <= 7.5000\nmse = 0.232136864095\nsamples = 3", shape="box"] ;
438 -> 439 ;
440 [label="X[1] <= 156.5000\nmse = 0.0207540596292\nsamples = 2", shape="box"] ;
439 -> 440 ;
441 [label="mse = 0.0000\nsamples = 1\nvalue = [ 9.17990909]", shape="box"] ;
440 -> 441 ;
442 [label="mse = -0.0000\nsamples = 1\nvalue = [ 8.8917837]", shape="box"] ;
440 -> 442 ;
443 [label="mse = 0.0000\nsamples = 1\nvalue = [ 10.02698398]", shape="box"] ;
439 -> 443 ;
444 [label="X[1] <= 158.0000\nmse = 0.0225260986811\nsamples = 2", shape="box"] ;
438 -> 444 ;
445 [label="mse = 0.0000\nsamples = 1\nvalue = [ 8.71424552]", shape="box"] ;
444 -> 445 ;
446 [label="mse = 0.0000\nsamples = 1\nvalue = [ 9.01441946]", shape="box"] ;
444 -> 446 ;
447 [label="X[1] <= 156.0000\nmse = 0.00055945766259\nsamples = 2", shape="box"] ;
437 -> 447 ;
448 [label="mse = 0.0000\nsamples = 1\nvalue = [ 9.55074679]", shape="box"] ;
447 -> 448 ;
449 [label="mse = -0.0000\nsamples = 1\nvalue = [ 9.5980525]", shape="box"] ;
447 -> 449 ;
450 [label="X[1] <= 161.5000\nmse = 0.256093871058\nsamples = 17", shape="box"] ;
350 -> 450 ;
451 [label="mse = 0.0000\nsamples = 1\nvalue = [ 10.70563239]", shape="box"] ;
450 -> 451 ;
452 [label="X[0] <= 8.5000\nmse = 0.237054504175\nsamples = 16", shape="box"] ;
450 -> 452 ;
453 [label="X[0] <= 7.5000\nmse = 0.179615010286\nsamples = 8", shape="box"] ;
452 -> 453 ;
454 [label="X[1] <= 177.5000\nmse = 0.128133188956\nsamples = 7", shape="box"] ;
453 -> 454 ;
455 [label="X[1] <= 175.5000\nmse = 0.131513907216\nsamples = 6", shape="box"] ;
454 -> 455 ;
456 [label="X[1] <= 172.5000\nmse = 0.0947432979951\nsamples = 5", shape="box"] ;
455 -> 456 ;
457 [label="X[1] <= 166.0000\nmse = 0.0622970560343\nsamples = 4", shape="box"] ;
456 -> 457 ;
458 [label="mse = 0.0000\nsamples = 1\nvalue = [ 9.57931594]", shape="box"] ;
457 -> 458 ;
459 [label="X[1] <= 170.5000\nmse = 0.0402944408302\nsamples = 3", shape="box"] ;
457 -> 459 ;
460 [label="X[0] <= 6.5000\nmse = 0.0363720408473\nsamples = 2", shape="box"] ;
459 -> 460 ;
461 [label="mse = 0.0000\nsamples = 1\nvalue = [ 10.27321281]", shape="box"] ;
460 -> 461 ;
462 [label="mse = 0.0000\nsamples = 1\nvalue = [ 9.8917837]", shape="box"] ;
460 -> 462 ;
463 [label="mse = -0.0000\nsamples = 1\nvalue = [ 9.81378119]", shape="box"] ;
459 -> 463 ;
464 [label="mse = 0.0000\nsamples = 1\nvalue = [ 9.35974956]", shape="box"] ;
456 -> 464 ;
465 [label="mse = 0.0000\nsamples = 1\nvalue = [ 10.39874369]", shape="box"] ;
455 -> 465 ;
466 [label="mse = -0.0000\nsamples = 1\nvalue = [ 9.53138146]", shape="box"] ;
454 -> 466 ;
467 [label="mse = -0.0000\nsamples = 1\nvalue = [ 9.04984855]", shape="box"] ;
453 -> 467 ;
468 [label="X[0] <= 16.0000\nmse = 0.217234476374\nsamples = 8", shape="box"] ;
452 -> 468 ;
469 [label="X[1] <= 165.5000\nmse = 0.202551338015\nsamples = 7", shape="box"] ;
468 -> 469 ;
470 [label="X[0] <= 12.0000\nmse = 0.214368730792\nsamples = 2", shape="box"] ;
469 -> 470 ;
471 [label="mse = 0.0000\nsamples = 1\nvalue = [ 10.8917837]", shape="box"] ;
470 -> 471 ;
472 [label="mse = 0.0000\nsamples = 1\nvalue = [ 9.96578428]", shape="box"] ;
470 -> 472 ;
473 [label="X[1] <= 170.5000\nmse = 0.170007866278\nsamples = 5", shape="box"] ;
469 -> 473 ;
474 [label="X[1] <= 168.5000\nmse = 0.0779138592181\nsamples = 3", shape="box"] ;
473 -> 474 ;
475 [label="mse = 0.0000\nsamples = 1\nvalue = [ 10.22881869]", shape="box"] ;
474 -> 475 ;
476 [label="X[1] <= 169.5000\nmse = 0.0430640314519\nsamples = 2", shape="box"] ;
474 -> 476 ;
477 [label="mse = 0.0000\nsamples = 1\nvalue = [ 9.55074679]", shape="box"] ;
476 -> 477 ;
478 [label="mse = -0.0000\nsamples = 1\nvalue = [ 9.96578428]", shape="box"] ;
476 -> 478 ;
479 [label="X[0] <= 13.5000\nmse = 0.155670789818\nsamples = 2", shape="box"] ;
473 -> 479 ;
480 [label="mse = 0.0000\nsamples = 1\nvalue = [ 10.81378119]", shape="box"] ;
479 -> 480 ;
481 [label="mse = 0.0000\nsamples = 1\nvalue = [ 10.02467844]", shape="box"] ;
479 -> 481 ;
482 [label="mse = -0.0000\nsamples = 1\nvalue = [ 9.60115236]", shape="box"] ;
468 -> 482 ;
483 [label="X[0] <= 9.5000\nmse = 0.15832940863\nsamples = 4", shape="box"] ;
333 -> 483 ;
484 [label="X[1] <= 202.5000\nmse = 0.0343777698628\nsamples = 3", shape="box"] ;
483 -> 484 ;
485 [label="X[1] <= 192.0000\nmse = 0.00531811881201\nsamples = 2", shape="box"] ;
484 -> 485 ;
486 [label="mse = 0.0000\nsamples = 1\nvalue = [ 10.34429591]", shape="box"] ;
485 -> 486 ;
487 [label="mse = -0.0000\nsamples = 1\nvalue = [ 10.19844504]", shape="box"] ;
485 -> 487 ;
488 [label="mse = -0.0000\nsamples = 1\nvalue = [ 10.64385619]", shape="box"] ;
484 -> 488 ;
489 [label="mse = -0.0000\nsamples = 1\nvalue = [ 11.23631323]", shape="box"] ;
483 -> 489 ;
490 [label="X[0] <= 5.5000\nmse = 3.45539132193\nsamples = 3", shape="box"] ;
332 -> 490 ;
491 [label="X[1] <= 224.5000\nmse = 0.501444894342\nsamples = 2", shape="box"] ;
490 -> 491 ;
492 [label="mse = 0.0000\nsamples = 1\nvalue = [ 9.53138146]", shape="box"] ;
491 -> 492 ;
493 [label="mse = -0.0000\nsamples = 1\nvalue = [ 10.94763694]", shape="box"] ;
491 -> 493 ;
494 [label="mse = -0.0000\nsamples = 1\nvalue = [ 6.4918531]", shape="box"] ;
490 -> 494 ;
}